\data\
ngram 1=32
ngram 2=123
ngram 3=376
ngram 4=839

\1-grams:
-2.0371988	<unk>	0
0	<s>	-1.5490941
-1.1539431	</s>	0
-1.8779755	เปิดน้ำ	-0.30103
-1.7617229	หนึ่ง	-0.30103
-0.98853505	วิ	-0.9378521
-1.8779755	ให้	-0.30103
-1.6701093	หน่อย	-0.30103
-0.98853505	วินาที	-0.9378521
-1.5301143	สอง	-0.42596874
-1.5301143	สาม	-0.36797678
-1.5301143	สี่	-0.36797678
-1.5301143	ห้า	-0.36797678
-1.5301143	หก	-0.36797678
-1.5301143	เจ็ด	-0.36797678
-1.5301143	แปด	-0.36797678
-1.5301143	เก้า	-0.36797678
-1.0634114	สิบ	-0.8549913
-1.1063225	สิบเอ็ด	-0.8239087
-1.6701093	ยี่	-0.30103
-1.8779755	เอ็ด	-0.30103
-1.5301143	แรง	-0.40369233
-1.5301143	ครับ	-0.42596874
-1.5301143	ค่ะ	-0.42596874
-1.5301143	เบา	-0.40369233
-1.8779755	เปิดก๊อก	-0.30103
-1.8779755	น้ำหนึ่ง	-0.30103
-1.8779755	เปิด	-0.30103
-1.8779755	ก๊อกน้ำ	-0.30103
-1.8779755	ปิด	-0.30103
-1.8779755	น้ำ	-0.30103
-1.7617229	ประหยัด	-0.30103

\2-grams:
-0.34639925	วิ </s>	0
-0.8694174	หน่อย </s>	0
-0.04928953	วินาที </s>	0
-0.79786164	แรง </s>	0
-0.1862136	ครับ </s>	0
-0.1862136	ค่ะ </s>	0
-0.79786164	เบา </s>	0
-0.6951993	น้ำ </s>	0
-0.43366778	ประหยัด </s>	0
-0.47822532	<s> เปิดน้ำ	-1.161368
-2.6865766	<s> หนึ่ง	-0.30103
-1.3768755	เปิดน้ำ หนึ่ง	-0.30103
-0.52094674	หนึ่ง วิ	-0.30103
-0.454689	สอง วิ	-0.42596874
-0.6525235	สาม วิ	-0.42596874
-0.6525235	สี่ วิ	-0.42596874
-0.6525235	ห้า วิ	-0.42596874
-0.6525235	หก วิ	-0.42596874
-0.6525235	เจ็ด วิ	-0.42596874
-0.6525235	แปด วิ	-0.42596874
-0.6525235	เก้า วิ	-0.42596874
-1.0003341	สิบ วิ	-0.86530143
-0.35615146	สิบเอ็ด วิ	-0.8239087
-0.52094674	เอ็ด วิ	-0.30103
-0.52094674	น้ำหนึ่ง วิ	-0.30103
-0.3527776	วิ ให้	-0.9378521
-0.2918451	ให้ หน่อย	-0.30103
-0.8538219	แรง หน่อย	-0.42596874
-0.8538219	เบา หน่อย	-0.42596874
-0.52094674	หนึ่ง วินาที	-0.30103
-0.454689	สอง วินาที	-0.42596874
-0.6525235	สาม วินาที	-0.42596874
-0.6525235	สี่ วินาที	-0.42596874
-0.6525235	ห้า วินาที	-0.42596874
-0.6525235	หก วินาที	-0.42596874
-0.6525235	เจ็ด วินาที	-0.42596874
-0.6525235	แปด วินาที	-0.42596874
-0.6525235	เก้า วินาที	-0.42596874
-1.0003341	สิบ วินาที	-0.86530143
-0.35615146	สิบเอ็ด วินาที	-0.8239087
-0.52094674	เอ็ด วินาที	-0.30103
-0.52094674	น้ำหนึ่ง วินาที	-0.30103
-2.6193693	<s> สอง	-0.30103
-1.3179859	เปิดน้ำ สอง	-0.30103
-1.0471807	สิบ สอง	-0.86530143
-1.2739766	ก๊อกน้ำ สอง	-0.30103
-1.4713008	<s> สาม	-0.86530143
-1.3179859	เปิดน้ำ สาม	-0.30103
-1.0471807	สิบ สาม	-0.86530143
-1.2739766	ก๊อกน้ำ สาม	-0.30103
-1.4713008	<s> สี่	-0.86530143
-1.3179859	เปิดน้ำ สี่	-0.30103
-1.0471807	สิบ สี่	-0.86530143
-1.2739766	ก๊อกน้ำ สี่	-0.30103
-1.4713008	<s> ห้า	-0.86530143
-1.3179859	เปิดน้ำ ห้า	-0.30103
-1.0471807	สิบ ห้า	-0.86530143
-1.2739766	ก๊อกน้ำ ห้า	-0.30103
-1.4713008	<s> หก	-0.86530143
-1.3179859	เปิดน้ำ หก	-0.30103
-1.0471807	สิบ หก	-0.86530143
-1.2739766	ก๊อกน้ำ หก	-0.30103
-1.4713008	<s> เจ็ด	-0.86530143
-1.3179859	เปิดน้ำ เจ็ด	-0.30103
-1.0471807	สิบ เจ็ด	-0.86530143
-1.2739766	ก๊อกน้ำ เจ็ด	-0.30103
-1.4713008	<s> แปด	-0.86530143
-1.3179859	เปิดน้ำ แปด	-0.30103
-1.0471807	สิบ แปด	-0.86530143
-1.2739766	ก๊อกน้ำ แปด	-0.30103
-1.4713008	<s> เก้า	-0.86530143
-1.3179859	เปิดน้ำ เก้า	-0.30103
-1.0471807	สิบ เก้า	-0.86530143
-1.2739766	ก๊อกน้ำ เก้า	-0.30103
-1.5358948	<s> สิบ	-0.30103
-1.1161071	เปิดน้ำ สิบ	-0.30103
-0.8411016	สาม สิบ	-0.30103
-0.8411016	สี่ สิบ	-0.30103
-0.8411016	ห้า สิบ	-0.30103
-0.8411016	หก สิบ	-0.30103
-0.8411016	เจ็ด สิบ	-0.30103
-0.8411016	แปด สิบ	-0.30103
-0.8411016	เก้า สิบ	-0.30103
-0.26503426	ยี่ สิบ	-0.30103
-1.0879428	ก๊อกน้ำ สิบ	-0.30103
-2.422507	<s> สิบเอ็ด	-0.30103
-1.1398073	เปิดน้ำ สิบเอ็ด	-0.30103
-0.85172606	สาม สิบเอ็ด	-0.30103
-0.85172606	สี่ สิบเอ็ด	-0.30103
-0.85172606	ห้า สิบเอ็ด	-0.30103
-0.85172606	หก สิบเอ็ด	-0.30103
-0.85172606	เจ็ด สิบเอ็ด	-0.30103
-0.85172606	แปด สิบเอ็ด	-0.30103
-0.85172606	เก้า สิบเอ็ด	-0.30103
-1.1101161	ก๊อกน้ำ สิบเอ็ด	-0.30103
-1.5169067	<s> ยี่	-1.30103
-1.3563454	เปิดน้ำ ยี่	-0.30103
-1.3084882	ก๊อกน้ำ ยี่	-0.30103
-2.1969585	สิบ เอ็ด	-0.30103
-2.012133	<s> แรง	-0.39794
-1.3179859	เปิดน้ำ แรง	-0.30103
-1.0429015	แรง แรง	-0.30103
-1.2739766	ก๊อกน้ำ แรง	-0.30103
-0.66806245	หน่อย ครับ	-0.30103
-0.84397995	แรง ครับ	-0.42596874
-0.84397995	เบา ครับ	-0.42596874
-0.74131763	น้ำ ครับ	-0.30103
-0.66806245	หน่อย ค่ะ	-0.30103
-0.84397995	แรง ค่ะ	-0.42596874
-0.84397995	เบา ค่ะ	-0.42596874
-0.74131763	น้ำ ค่ะ	-0.30103
-2.012133	<s> เบา	-0.39794
-1.3179859	เปิดน้ำ เบา	-0.30103
-1.0429015	เบา เบา	-0.30103
-1.2739766	ก๊อกน้ำ เบา	-0.30103
-2.7115076	<s> เปิดก๊อก	-0.30103
-0.29531592	เปิดก๊อก น้ำหนึ่ง	-0.30103
-0.4851112	<s> เปิด	-2.3208385
-0.29531592	เปิด ก๊อกน้ำ	-0.30103
-2.7115076	<s> ปิด	-0.30103
-0.29531592	ปิด น้ำ	-0.30103
-1.3768755	เปิดน้ำ ประหยัด	-0.30103
-0.7561654	ประหยัด ประหยัด	-0.30103

\3-grams:
-0.32312244	หนึ่ง วิ </s>	0
-0.31749308	สอง วิ </s>	0
-0.31749308	สาม วิ </s>	0
-0.31749308	สี่ วิ </s>	0
-0.31749308	ห้า วิ </s>	0
-0.31749308	หก วิ </s>	0
-0.31749308	เจ็ด วิ </s>	0
-0.31749308	แปด วิ </s>	0
-0.31749308	เก้า วิ </s>	0
-0.3069446	สิบ วิ </s>	0
-0.3075405	สิบเอ็ด วิ </s>	0
-0.32312244	เอ็ด วิ </s>	0
-0.32312244	น้ำหนึ่ง วิ </s>	0
-0.24600454	ให้ หน่อย </s>	0
-0.023945872	หนึ่ง วินาที </s>	0
-0.017834518	สอง วินาที </s>	0
-0.017834518	สาม วินาที </s>	0
-0.017834518	สี่ วินาที </s>	0
-0.017834518	ห้า วินาที </s>	0
-0.017834518	หก วินาที </s>	0
-0.017834518	เจ็ด วินาที </s>	0
-0.017834518	แปด วินาที </s>	0
-0.017834518	เก้า วินาที </s>	0
-0.006400857	สิบ วินาที </s>	0
-0.007046141	สิบเอ็ด วินาที </s>	0
-0.023945872	เอ็ด วินาที </s>	0
-0.023945872	น้ำหนึ่ง วินาที </s>	0
-0.94420654	<s> แรง </s>	0
-0.7456071	เปิดน้ำ แรง </s>	0
-0.68901837	แรง แรง </s>	0
-0.7456071	ก๊อกน้ำ แรง </s>	0
-0.0832019	หน่อย ครับ </s>	0
-0.060860034	แรง ครับ </s>	0
-0.060860034	เบา ครับ </s>	0
-0.0832019	น้ำ ครับ </s>	0
-0.0832019	หน่อย ค่ะ </s>	0
-0.060860034	แรง ค่ะ </s>	0
-0.060860034	เบา ค่ะ </s>	0
-0.0832019	น้ำ ค่ะ </s>	0
-0.94420654	<s> เบา </s>	0
-0.7456071	เปิดน้ำ เบา </s>	0
-0.68901837	เบา เบา </s>	0
-0.7456071	ก๊อกน้ำ เบา </s>	0
-0.5726134	ปิด น้ำ </s>	0
-0.36230484	เปิดน้ำ ประหยัด </s>	0
-0.16481353	ประหยัด ประหยัด </s>	0
-2.1193056	<s> เปิดน้ำ หนึ่ง	-0.30103
-0.31515273	<s> หนึ่ง วิ	-0.30103
-0.3972145	เปิดน้ำ หนึ่ง วิ	-0.30103
-0.29342312	<s> สอง วิ	-0.30103
-0.37109882	เปิดน้ำ สอง วิ	-0.30103
-0.31904635	สิบ สอง วิ	-1.2552725
-0.37109882	ก๊อกน้ำ สอง วิ	-0.30103
-1.2171392	<s> สาม วิ	-0.30103
-0.6265592	เปิดน้ำ สาม วิ	-0.30103
-0.33519888	สิบ สาม วิ	-1.2552725
-0.6265592	ก๊อกน้ำ สาม วิ	-0.30103
-1.2171392	<s> สี่ วิ	-0.30103
-0.6265592	เปิดน้ำ สี่ วิ	-0.30103
-0.33519888	สิบ สี่ วิ	-1.2552725
-0.6265592	ก๊อกน้ำ สี่ วิ	-0.30103
-1.2171392	<s> ห้า วิ	-0.30103
-0.6265592	เปิดน้ำ ห้า วิ	-0.30103
-0.33519888	สิบ ห้า วิ	-1.2552725
-0.6265592	ก๊อกน้ำ ห้า วิ	-0.30103
-1.2171392	<s> หก วิ	-0.30103
-0.6265592	เปิดน้ำ หก วิ	-0.30103
-0.33519888	สิบ หก วิ	-1.2552725
-0.6265592	ก๊อกน้ำ หก วิ	-0.30103
-1.2171392	<s> เจ็ด วิ	-0.30103
-0.6265592	เปิดน้ำ เจ็ด วิ	-0.30103
-0.33519888	สิบ เจ็ด วิ	-1.2552725
-0.6265592	ก๊อกน้ำ เจ็ด วิ	-0.30103
-1.2171392	<s> แปด วิ	-0.30103
-0.6265592	เปิดน้ำ แปด วิ	-0.30103
-0.33519888	สิบ แปด วิ	-1.2552725
-0.6265592	ก๊อกน้ำ แปด วิ	-0.30103
-1.2171392	<s> เก้า วิ	-0.30103
-0.6265592	เปิดน้ำ เก้า วิ	-0.30103
-0.33519888	สิบ เก้า วิ	-1.2552725
-0.6265592	ก๊อกน้ำ เก้า วิ	-0.30103
-1.0604879	<s> สิบ วิ	-0.30103
-1.000167	เปิดน้ำ สิบ วิ	-0.30103
-1.000167	สาม สิบ วิ	-0.30103
-1.000167	สี่ สิบ วิ	-0.30103
-1.000167	ห้า สิบ วิ	-0.30103
-1.000167	หก สิบ วิ	-0.30103
-1.000167	เจ็ด สิบ วิ	-0.30103
-1.000167	แปด สิบ วิ	-0.30103
-1.000167	เก้า สิบ วิ	-0.30103
-1.0203784	ยี่ สิบ วิ	-0.30103
-1.000167	ก๊อกน้ำ สิบ วิ	-0.30103
-0.25685573	<s> สิบเอ็ด วิ	-0.30103
-0.3277168	เปิดน้ำ สิบเอ็ด วิ	-0.30103
-0.3277168	สาม สิบเอ็ด วิ	-0.30103
-0.3277168	สี่ สิบเอ็ด วิ	-0.30103
-0.3277168	ห้า สิบเอ็ด วิ	-0.30103
-0.3277168	หก สิบเอ็ด วิ	-0.30103
-0.3277168	เจ็ด สิบเอ็ด วิ	-0.30103
-0.3277168	แปด สิบเอ็ด วิ	-0.30103
-0.3277168	เก้า สิบเอ็ด วิ	-0.30103
-0.3277168	ก๊อกน้ำ สิบเอ็ด วิ	-0.30103
-0.3972145	สิบ เอ็ด วิ	-0.30103
-0.3972145	เปิดก๊อก น้ำหนึ่ง วิ	-0.30103
-0.32613352	หนึ่ง วิ ให้	-0.30103
-0.3197203	สอง วิ ให้	-1.30103
-0.3197203	สาม วิ ให้	-1.30103
-0.3197203	สี่ วิ ให้	-1.30103
-0.3197203	ห้า วิ ให้	-1.30103
-0.3197203	หก วิ ให้	-1.30103
-0.3197203	เจ็ด วิ ให้	-1.30103
-0.3197203	แปด วิ ให้	-1.30103
-0.3197203	เก้า วิ ให้	-1.30103
-0.30773377	สิบ วิ ให้	-1.2552725
-0.30840987	สิบเอ็ด วิ ให้	-1.20412
-0.32613352	เอ็ด วิ ให้	-0.30103
-0.32613352	น้ำหนึ่ง วิ ให้	-0.30103
-0.025239311	วิ ให้ หน่อย	-2.2966652
-0.8068574	<s> แรง หน่อย	-0.30103
-0.7695304	เปิดน้ำ แรง หน่อย	-0.30103
-0.7099474	แรง แรง หน่อย	-0.30103
-0.7695304	ก๊อกน้ำ แรง หน่อย	-0.30103
-0.8068574	<s> เบา หน่อย	-0.30103
-0.7695304	เปิดน้ำ เบา หน่อย	-0.30103
-0.7099474	เบา เบา หน่อย	-0.30103
-0.7695304	ก๊อกน้ำ เบา หน่อย	-0.30103
-0.49848145	<s> หนึ่ง วินาที	-0.30103
-0.3972145	เปิดน้ำ หนึ่ง วินาที	-0.30103
-0.4657603	<s> สอง วินาที	-0.30103
-0.37109882	เปิดน้ำ สอง วินาที	-0.30103
-0.31904635	สิบ สอง วินาที	-1.2552725
-0.37109882	ก๊อกน้ำ สอง วินาที	-0.30103
-1.3419633	<s> สาม วินาที	-0.30103
-0.6265592	เปิดน้ำ สาม วินาที	-0.30103
-0.33519888	สิบ สาม วินาที	-1.2552725
-0.6265592	ก๊อกน้ำ สาม วินาที	-0.30103
-1.3419633	<s> สี่ วินาที	-0.30103
-0.6265592	เปิดน้ำ สี่ วินาที	-0.30103
-0.33519888	สิบ สี่ วินาที	-1.2552725
-0.6265592	ก๊อกน้ำ สี่ วินาที	-0.30103
-1.3419633	<s> ห้า วินาที	-0.30103
-0.6265592	เปิดน้ำ ห้า วินาที	-0.30103
-0.33519888	สิบ ห้า วินาที	-1.2552725
-0.6265592	ก๊อกน้ำ ห้า วินาที	-0.30103
-1.3419633	<s> หก วินาที	-0.30103
-0.6265592	เปิดน้ำ หก วินาที	-0.30103
-0.33519888	สิบ หก วินาที	-1.2552725
-0.6265592	ก๊อกน้ำ หก วินาที	-0.30103
-1.3419633	<s> เจ็ด วินาที	-0.30103
-0.6265592	เปิดน้ำ เจ็ด วินาที	-0.30103
-0.33519888	สิบ เจ็ด วินาที	-1.2552725
-0.6265592	ก๊อกน้ำ เจ็ด วินาที	-0.30103
-1.3419633	<s> แปด วินาที	-0.30103
-0.6265592	เปิดน้ำ แปด วินาที	-0.30103
-0.33519888	สิบ แปด วินาที	-1.2552725
-0.6265592	ก๊อกน้ำ แปด วินาที	-0.30103
-1.3419633	<s> เก้า วินาที	-0.30103
-0.6265592	เปิดน้ำ เก้า วินาที	-0.30103
-0.33519888	สิบ เก้า วินาที	-1.2552725
-0.6265592	ก๊อกน้ำ เก้า วินาที	-0.30103
-1.1644359	<s> สิบ วินาที	-0.30103
-1.000167	เปิดน้ำ สิบ วินาที	-0.30103
-1.000167	สาม สิบ วินาที	-0.30103
-1.000167	สี่ สิบ วินาที	-0.30103
-1.000167	ห้า สิบ วินาที	-0.30103
-1.000167	หก สิบ วินาที	-0.30103
-1.000167	เจ็ด สิบ วินาที	-0.30103
-1.000167	แปด สิบ วินาที	-0.30103
-1.000167	เก้า สิบ วินาที	-0.30103
-1.0203784	ยี่ สิบ วินาที	-0.30103
-1.000167	ก๊อกน้ำ สิบ วินาที	-0.30103
-0.412438	<s> สิบเอ็ด วินาที	-0.30103
-0.3277168	เปิดน้ำ สิบเอ็ด วินาที	-0.30103
-0.3277168	สาม สิบเอ็ด วินาที	-0.30103
-0.3277168	สี่ สิบเอ็ด วินาที	-0.30103
-0.3277168	ห้า สิบเอ็ด วินาที	-0.30103
-0.3277168	หก สิบเอ็ด วินาที	-0.30103
-0.3277168	เจ็ด สิบเอ็ด วินาที	-0.30103
-0.3277168	แปด สิบเอ็ด วินาที	-0.30103
-0.3277168	เก้า สิบเอ็ด วินาที	-0.30103
-0.3277168	ก๊อกน้ำ สิบเอ็ด วินาที	-0.30103
-0.3972145	สิบ เอ็ด วินาที	-0.30103
-0.3972145	เปิดก๊อก น้ำหนึ่ง วินาที	-0.30103
-2.0959103	<s> เปิดน้ำ สอง	-0.30103
-0.9982303	<s> สิบ สอง	-0.30103
-1.0229499	เปิดน้ำ สิบ สอง	-0.30103
-1.0229499	สาม สิบ สอง	-0.47712123
-1.0229499	สี่ สิบ สอง	-0.47712123
-1.0229499	ห้า สิบ สอง	-0.47712123
-1.0229499	หก สิบ สอง	-0.47712123
-1.0229499	เจ็ด สิบ สอง	-0.47712123
-1.0229499	แปด สิบ สอง	-0.47712123
-1.0229499	เก้า สิบ สอง	-0.47712123
-1.044277	ยี่ สิบ สอง	-0.47712123
-1.0229499	ก๊อกน้ำ สิบ สอง	-0.30103
-1.18663	เปิด ก๊อกน้ำ สอง	-0.30103
-0.9911345	<s> เปิดน้ำ สาม	-0.86530143
-0.9982303	<s> สิบ สาม	-0.30103
-1.0229499	เปิดน้ำ สิบ สาม	-0.30103
-1.0229499	สาม สิบ สาม	-0.47712123
-1.0229499	สี่ สิบ สาม	-0.47712123
-1.0229499	ห้า สิบ สาม	-0.47712123
-1.0229499	หก สิบ สาม	-0.47712123
-1.0229499	เจ็ด สิบ สาม	-0.47712123
-1.0229499	แปด สิบ สาม	-0.47712123
-1.0229499	เก้า สิบ สาม	-0.47712123
-1.044277	ยี่ สิบ สาม	-0.47712123
-1.0229499	ก๊อกน้ำ สิบ สาม	-0.30103
-1.18663	เปิด ก๊อกน้ำ สาม	-0.86530143
-0.9911345	<s> เปิดน้ำ สี่	-0.86530143
-0.9982303	<s> สิบ สี่	-0.30103
-1.0229499	เปิดน้ำ สิบ สี่	-0.30103
-1.0229499	สาม สิบ สี่	-0.47712123
-1.0229499	สี่ สิบ สี่	-0.47712123
-1.0229499	ห้า สิบ สี่	-0.47712123
-1.0229499	หก สิบ สี่	-0.47712123
-1.0229499	เจ็ด สิบ สี่	-0.47712123
-1.0229499	แปด สิบ สี่	-0.47712123
-1.0229499	เก้า สิบ สี่	-0.47712123
-1.044277	ยี่ สิบ สี่	-0.47712123
-1.0229499	ก๊อกน้ำ สิบ สี่	-0.30103
-1.18663	เปิด ก๊อกน้ำ สี่	-0.86530143
-0.9911345	<s> เปิดน้ำ ห้า	-0.86530143
-0.9982303	<s> สิบ ห้า	-0.30103
-1.0229499	เปิดน้ำ สิบ ห้า	-0.30103
-1.0229499	สาม สิบ ห้า	-0.47712123
-1.0229499	สี่ สิบ ห้า	-0.47712123
-1.0229499	ห้า สิบ ห้า	-0.47712123
-1.0229499	หก สิบ ห้า	-0.47712123
-1.0229499	เจ็ด สิบ ห้า	-0.47712123
-1.0229499	แปด สิบ ห้า	-0.47712123
-1.0229499	เก้า สิบ ห้า	-0.47712123
-1.044277	ยี่ สิบ ห้า	-0.47712123
-1.0229499	ก๊อกน้ำ สิบ ห้า	-0.30103
-1.18663	เปิด ก๊อกน้ำ ห้า	-0.86530143
-0.9911345	<s> เปิดน้ำ หก	-0.86530143
-0.9982303	<s> สิบ หก	-0.30103
-1.0229499	เปิดน้ำ สิบ หก	-0.30103
-1.0229499	สาม สิบ หก	-0.47712123
-1.0229499	สี่ สิบ หก	-0.47712123
-1.0229499	ห้า สิบ หก	-0.47712123
-1.0229499	หก สิบ หก	-0.47712123
-1.0229499	เจ็ด สิบ หก	-0.47712123
-1.0229499	แปด สิบ หก	-0.47712123
-1.0229499	เก้า สิบ หก	-0.47712123
-1.044277	ยี่ สิบ หก	-0.47712123
-1.0229499	ก๊อกน้ำ สิบ หก	-0.30103
-1.18663	เปิด ก๊อกน้ำ หก	-0.86530143
-0.9911345	<s> เปิดน้ำ เจ็ด	-0.86530143
-0.9982303	<s> สิบ เจ็ด	-0.30103
-1.0229499	เปิดน้ำ สิบ เจ็ด	-0.30103
-1.0229499	สาม สิบ เจ็ด	-0.47712123
-1.0229499	สี่ สิบ เจ็ด	-0.47712123
-1.0229499	ห้า สิบ เจ็ด	-0.47712123
-1.0229499	หก สิบ เจ็ด	-0.47712123
-1.0229499	เจ็ด สิบ เจ็ด	-0.47712123
-1.0229499	แปด สิบ เจ็ด	-0.47712123
-1.0229499	เก้า สิบ เจ็ด	-0.47712123
-1.044277	ยี่ สิบ เจ็ด	-0.47712123
-1.0229499	ก๊อกน้ำ สิบ เจ็ด	-0.30103
-1.18663	เปิด ก๊อกน้ำ เจ็ด	-0.86530143
-0.9911345	<s> เปิดน้ำ แปด	-0.86530143
-0.9982303	<s> สิบ แปด	-0.30103
-1.0229499	เปิดน้ำ สิบ แปด	-0.30103
-1.0229499	สาม สิบ แปด	-0.47712123
-1.0229499	สี่ สิบ แปด	-0.47712123
-1.0229499	ห้า สิบ แปด	-0.47712123
-1.0229499	หก สิบ แปด	-0.47712123
-1.0229499	เจ็ด สิบ แปด	-0.47712123
-1.0229499	แปด สิบ แปด	-0.47712123
-1.0229499	เก้า สิบ แปด	-0.47712123
-1.044277	ยี่ สิบ แปด	-0.47712123
-1.0229499	ก๊อกน้ำ สิบ แปด	-0.30103
-1.18663	เปิด ก๊อกน้ำ แปด	-0.86530143
-0.9911345	<s> เปิดน้ำ เก้า	-0.86530143
-0.9982303	<s> สิบ เก้า	-0.30103
-1.0229499	เปิดน้ำ สิบ เก้า	-0.30103
-1.0229499	สาม สิบ เก้า	-0.47712123
-1.0229499	สี่ สิบ เก้า	-0.47712123
-1.0229499	ห้า สิบ เก้า	-0.47712123
-1.0229499	หก สิบ เก้า	-0.47712123
-1.0229499	เจ็ด สิบ เก้า	-0.47712123
-1.0229499	แปด สิบ เก้า	-0.47712123
-1.0229499	เก้า สิบ เก้า	-0.47712123
-1.044277	ยี่ สิบ เก้า	-0.47712123
-1.0229499	ก๊อกน้ำ สิบ เก้า	-0.30103
-1.18663	เปิด ก๊อกน้ำ เก้า	-0.86530143
-1.069479	<s> เปิดน้ำ สิบ	-0.30103
-0.1010622	<s> สาม สิบ	-0.30103
-0.7053378	เปิดน้ำ สาม สิบ	-0.30103
-0.7053378	ก๊อกน้ำ สาม สิบ	-0.30103
-0.1010622	<s> สี่ สิบ	-0.30103
-0.7053378	เปิดน้ำ สี่ สิบ	-0.30103
-0.7053378	ก๊อกน้ำ สี่ สิบ	-0.30103
-0.1010622	<s> ห้า สิบ	-0.30103
-0.7053378	เปิดน้ำ ห้า สิบ	-0.30103
-0.7053378	ก๊อกน้ำ ห้า สิบ	-0.30103
-0.1010622	<s> หก สิบ	-0.30103
-0.7053378	เปิดน้ำ หก สิบ	-0.30103
-0.7053378	ก๊อกน้ำ หก สิบ	-0.30103
-0.1010622	<s> เจ็ด สิบ	-0.30103
-0.7053378	เปิดน้ำ เจ็ด สิบ	-0.30103
-0.7053378	ก๊อกน้ำ เจ็ด สิบ	-0.30103
-0.1010622	<s> แปด สิบ	-0.30103
-0.7053378	เปิดน้ำ แปด สิบ	-0.30103
-0.7053378	ก๊อกน้ำ แปด สิบ	-0.30103
-0.1010622	<s> เก้า สิบ	-0.30103
-0.7053378	เปิดน้ำ เก้า สิบ	-0.30103
-0.7053378	ก๊อกน้ำ เก้า สิบ	-0.30103
-0.010034171	<s> ยี่ สิบ	-0.30103
-0.1126057	เปิดน้ำ ยี่ สิบ	-0.30103
-0.1126057	ก๊อกน้ำ ยี่ สิบ	-0.30103
-1.1007485	เปิด ก๊อกน้ำ สิบ	-0.30103
-2.0132048	<s> เปิดน้ำ สิบเอ็ด	-0.30103
-1.1894985	<s> สาม สิบเอ็ด	-0.30103
-0.7091938	เปิดน้ำ สาม สิบเอ็ด	-0.30103
-0.7091938	ก๊อกน้ำ สาม สิบเอ็ด	-0.30103
-1.1894985	<s> สี่ สิบเอ็ด	-0.30103
-0.7091938	เปิดน้ำ สี่ สิบเอ็ด	-0.30103
-0.7091938	ก๊อกน้ำ สี่ สิบเอ็ด	-0.30103
-1.1894985	<s> ห้า สิบเอ็ด	-0.30103
-0.7091938	เปิดน้ำ ห้า สิบเอ็ด	-0.30103
-0.7091938	ก๊อกน้ำ ห้า สิบเอ็ด	-0.30103
-1.1894985	<s> หก สิบเอ็ด	-0.30103
-0.7091938	เปิดน้ำ หก สิบเอ็ด	-0.30103
-0.7091938	ก๊อกน้ำ หก สิบเอ็ด	-0.30103
-1.1894985	<s> เจ็ด สิบเอ็ด	-0.30103
-0.7091938	เปิดน้ำ เจ็ด สิบเอ็ด	-0.30103
-0.7091938	ก๊อกน้ำ เจ็ด สิบเอ็ด	-0.30103
-1.1894985	<s> แปด สิบเอ็ด	-0.30103
-0.7091938	เปิดน้ำ แปด สิบเอ็ด	-0.30103
-0.7091938	ก๊อกน้ำ แปด สิบเอ็ด	-0.30103
-1.1894985	<s> เก้า สิบเอ็ด	-0.30103
-0.7091938	เปิดน้ำ เก้า สิบเอ็ด	-0.30103
-0.7091938	ก๊อกน้ำ เก้า สิบเอ็ด	-0.30103
-1.1120255	เปิด ก๊อกน้ำ สิบเอ็ด	-0.30103
-1.0344334	<s> เปิดน้ำ ยี่	-1.30103
-1.2004123	เปิด ก๊อกน้ำ ยี่	-1.30103
-1.3130823	ยี่ สิบ เอ็ด	-0.47712123
-1.523429	<s> เปิดน้ำ แรง	-0.39794
-0.41314554	<s> แรง แรง	-0.30103
-0.83774364	เปิดน้ำ แรง แรง	-0.30103
-0.83774364	ก๊อกน้ำ แรง แรง	-0.30103
-1.18663	เปิด ก๊อกน้ำ แรง	-0.39794
-0.405572	แรง หน่อย ครับ	-0.60206
-0.405572	เบา หน่อย ครับ	-0.60206
-0.9694401	<s> แรง ครับ	-0.30103
-0.76545054	เปิดน้ำ แรง ครับ	-0.30103
-0.7063884	แรง แรง ครับ	-0.30103
-0.76545054	ก๊อกน้ำ แรง ครับ	-0.30103
-0.9694401	<s> เบา ครับ	-0.30103
-0.76545054	เปิดน้ำ เบา ครับ	-0.30103
-0.7063884	เบา เบา ครับ	-0.30103
-0.76545054	ก๊อกน้ำ เบา ครับ	-0.30103
-0.5894319	ปิด น้ำ ครับ	-0.30103
-0.405572	แรง หน่อย ค่ะ	-0.60206
-0.405572	เบา หน่อย ค่ะ	-0.60206
-0.9694401	<s> แรง ค่ะ	-0.30103
-0.76545054	เปิดน้ำ แรง ค่ะ	-0.30103
-0.7063884	แรง แรง ค่ะ	-0.30103
-0.76545054	ก๊อกน้ำ แรง ค่ะ	-0.30103
-0.9694401	<s> เบา ค่ะ	-0.30103
-0.76545054	เปิดน้ำ เบา ค่ะ	-0.30103
-0.7063884	เบา เบา ค่ะ	-0.30103
-0.76545054	ก๊อกน้ำ เบา ค่ะ	-0.30103
-0.5894319	ปิด น้ำ ค่ะ	-0.30103
-1.523429	<s> เปิดน้ำ เบา	-0.39794
-0.41314554	<s> เบา เบา	-0.30103
-0.83774364	เปิดน้ำ เบา เบา	-0.30103
-0.83774364	ก๊อกน้ำ เบา เบา	-0.30103
-1.18663	เปิด ก๊อกน้ำ เบา	-0.39794
-0.12302567	<s> เปิดก๊อก น้ำหนึ่ง	-0.30103
-0.0010247912	<s> เปิด ก๊อกน้ำ	-1.206895
-0.12302567	<s> ปิด น้ำ	-0.30103
-2.2196455	<s> เปิดน้ำ ประหยัด	-0.30103
-0.4715196	เปิดน้ำ ประหยัด ประหยัด	-0.30103

\4-grams:
-0.31193575	<s> หนึ่ง วิ </s>
-0.31193575	เปิดน้ำ หนึ่ง วิ </s>
-0.30918354	<s> สอง วิ </s>
-0.30918354	เปิดน้ำ สอง วิ </s>
-0.30192843	สิบ สอง วิ </s>
-0.30918354	ก๊อกน้ำ สอง วิ </s>
-0.30918354	<s> สาม วิ </s>
-0.30918354	เปิดน้ำ สาม วิ </s>
-0.30192843	สิบ สาม วิ </s>
-0.30918354	ก๊อกน้ำ สาม วิ </s>
-0.30918354	<s> สี่ วิ </s>
-0.30918354	เปิดน้ำ สี่ วิ </s>
-0.30192843	สิบ สี่ วิ </s>
-0.30918354	ก๊อกน้ำ สี่ วิ </s>
-0.30918354	<s> ห้า วิ </s>
-0.30918354	เปิดน้ำ ห้า วิ </s>
-0.30192843	สิบ ห้า วิ </s>
-0.30918354	ก๊อกน้ำ ห้า วิ </s>
-0.30918354	<s> หก วิ </s>
-0.30918354	เปิดน้ำ หก วิ </s>
-0.30192843	สิบ หก วิ </s>
-0.30918354	ก๊อกน้ำ หก วิ </s>
-0.30918354	<s> เจ็ด วิ </s>
-0.30918354	เปิดน้ำ เจ็ด วิ </s>
-0.30192843	สิบ เจ็ด วิ </s>
-0.30918354	ก๊อกน้ำ เจ็ด วิ </s>
-0.30918354	<s> แปด วิ </s>
-0.30918354	เปิดน้ำ แปด วิ </s>
-0.30192843	สิบ แปด วิ </s>
-0.30918354	ก๊อกน้ำ แปด วิ </s>
-0.30918354	<s> เก้า วิ </s>
-0.30918354	เปิดน้ำ เก้า วิ </s>
-0.30192843	สิบ เก้า วิ </s>
-0.30918354	ก๊อกน้ำ เก้า วิ </s>
-0.30397722	<s> สิบ วิ </s>
-0.30397722	เปิดน้ำ สิบ วิ </s>
-0.30397722	สาม สิบ วิ </s>
-0.30397722	สี่ สิบ วิ </s>
-0.30397722	ห้า สิบ วิ </s>
-0.30397722	หก สิบ วิ </s>
-0.30397722	เจ็ด สิบ วิ </s>
-0.30397722	แปด สิบ วิ </s>
-0.30397722	เก้า สิบ วิ </s>
-0.30397722	ยี่ สิบ วิ </s>
-0.30397722	ก๊อกน้ำ สิบ วิ </s>
-0.30427307	<s> สิบเอ็ด วิ </s>
-0.30427307	เปิดน้ำ สิบเอ็ด วิ </s>
-0.30427307	สาม สิบเอ็ด วิ </s>
-0.30427307	สี่ สิบเอ็ด วิ </s>
-0.30427307	ห้า สิบเอ็ด วิ </s>
-0.30427307	หก สิบเอ็ด วิ </s>
-0.30427307	เจ็ด สิบเอ็ด วิ </s>
-0.30427307	แปด สิบเอ็ด วิ </s>
-0.30427307	เก้า สิบเอ็ด วิ </s>
-0.30427307	ก๊อกน้ำ สิบเอ็ด วิ </s>
-0.31193575	สิบ เอ็ด วิ </s>
-0.31193575	เปิดก๊อก น้ำหนึ่ง วิ </s>
-0.0009496029	วิ ให้ หน่อย </s>
-0.011807918	<s> หนึ่ง วินาที </s>
-0.011807918	เปิดน้ำ หนึ่ง วินาที </s>
-0.0088257175	<s> สอง วินาที </s>
-0.0088257175	เปิดน้ำ สอง วินาที </s>
-0.0009718362	สิบ สอง วินาที </s>
-0.0088257175	ก๊อกน้ำ สอง วินาที </s>
-0.0088257175	<s> สาม วินาที </s>
-0.0088257175	เปิดน้ำ สาม วินาที </s>
-0.0009718362	สิบ สาม วินาที </s>
-0.0088257175	ก๊อกน้ำ สาม วินาที </s>
-0.0088257175	<s> สี่ วินาที </s>
-0.0088257175	เปิดน้ำ สี่ วินาที </s>
-0.0009718362	สิบ สี่ วินาที </s>
-0.0088257175	ก๊อกน้ำ สี่ วินาที </s>
-0.0088257175	<s> ห้า วินาที </s>
-0.0088257175	เปิดน้ำ ห้า วินาที </s>
-0.0009718362	สิบ ห้า วินาที </s>
-0.0088257175	ก๊อกน้ำ ห้า วินาที </s>
-0.0088257175	<s> หก วินาที </s>
-0.0088257175	เปิดน้ำ หก วินาที </s>
-0.0009718362	สิบ หก วินาที </s>
-0.0088257175	ก๊อกน้ำ หก วินาที </s>
-0.0088257175	<s> เจ็ด วินาที </s>
-0.0088257175	เปิดน้ำ เจ็ด วินาที </s>
-0.0009718362	สิบ เจ็ด วินาที </s>
-0.0088257175	ก๊อกน้ำ เจ็ด วินาที </s>
-0.0088257175	<s> แปด วินาที </s>
-0.0088257175	เปิดน้ำ แปด วินาที </s>
-0.0009718362	สิบ แปด วินาที </s>
-0.0088257175	ก๊อกน้ำ แปด วินาที </s>
-0.0088257175	<s> เก้า วินาที </s>
-0.0088257175	เปิดน้ำ เก้า วินาที </s>
-0.0009718362	สิบ เก้า วินาที </s>
-0.0088257175	ก๊อกน้ำ เก้า วินาที </s>
-0.0031886362	<s> สิบ วินาที </s>
-0.0031886362	เปิดน้ำ สิบ วินาที </s>
-0.0031886362	สาม สิบ วินาที </s>
-0.0031886362	สี่ สิบ วินาที </s>
-0.0031886362	ห้า สิบ วินาที </s>
-0.0031886362	หก สิบ วินาที </s>
-0.0031886362	เจ็ด สิบ วินาที </s>
-0.0031886362	แปด สิบ วินาที </s>
-0.0031886362	เก้า สิบ วินาที </s>
-0.0031886362	ยี่ สิบ วินาที </s>
-0.0031886362	ก๊อกน้ำ สิบ วินาที </s>
-0.0035087937	<s> สิบเอ็ด วินาที </s>
-0.0035087937	เปิดน้ำ สิบเอ็ด วินาที </s>
-0.0035087937	สาม สิบเอ็ด วินาที </s>
-0.0035087937	สี่ สิบเอ็ด วินาที </s>
-0.0035087937	ห้า สิบเอ็ด วินาที </s>
-0.0035087937	หก สิบเอ็ด วินาที </s>
-0.0035087937	เจ็ด สิบเอ็ด วินาที </s>
-0.0035087937	แปด สิบเอ็ด วินาที </s>
-0.0035087937	เก้า สิบเอ็ด วินาที </s>
-0.0035087937	ก๊อกน้ำ สิบเอ็ด วินาที </s>
-0.011807918	สิบ เอ็ด วินาที </s>
-0.011807918	เปิดก๊อก น้ำหนึ่ง วินาที </s>
-0.91415906	<s> เปิดน้ำ แรง </s>
-0.69396573	<s> แรง แรง </s>
-0.69396573	เปิดน้ำ แรง แรง </s>
-0.69396573	ก๊อกน้ำ แรง แรง </s>
-0.91415906	เปิด ก๊อกน้ำ แรง </s>
-0.0193543	แรง หน่อย ครับ </s>
-0.0193543	เบา หน่อย ครับ </s>
-0.02936481	<s> แรง ครับ </s>
-0.02936481	เปิดน้ำ แรง ครับ </s>
-0.02936481	แรง แรง ครับ </s>
-0.02936481	ก๊อกน้ำ แรง ครับ </s>
-0.02936481	<s> เบา ครับ </s>
-0.02936481	เปิดน้ำ เบา ครับ </s>
-0.02936481	เบา เบา ครับ </s>
-0.02936481	ก๊อกน้ำ เบา ครับ </s>
-0.039611515	ปิด น้ำ ครับ </s>
-0.0193543	แรง หน่อย ค่ะ </s>
-0.0193543	เบา หน่อย ค่ะ </s>
-0.02936481	<s> แรง ค่ะ </s>
-0.02936481	เปิดน้ำ แรง ค่ะ </s>
-0.02936481	แรง แรง ค่ะ </s>
-0.02936481	ก๊อกน้ำ แรง ค่ะ </s>
-0.02936481	<s> เบา ค่ะ </s>
-0.02936481	เปิดน้ำ เบา ค่ะ </s>
-0.02936481	เบา เบา ค่ะ </s>
-0.02936481	ก๊อกน้ำ เบา ค่ะ </s>
-0.039611515	ปิด น้ำ ค่ะ </s>
-0.91415906	<s> เปิดน้ำ เบา </s>
-0.69396573	<s> เบา เบา </s>
-0.69396573	เปิดน้ำ เบา เบา </s>
-0.69396573	ก๊อกน้ำ เบา เบา </s>
-0.91415906	เปิด ก๊อกน้ำ เบา </s>
-0.522248	<s> ปิด น้ำ </s>
-0.33058766	<s> เปิดน้ำ ประหยัด </s>
-0.07463497	เปิดน้ำ ประหยัด ประหยัด </s>
-0.27272907	<s> เปิดน้ำ หนึ่ง วิ
-0.2627404	<s> เปิดน้ำ สอง วิ
-0.24171317	<s> สิบ สอง วิ
-0.24171317	เปิดน้ำ สิบ สอง วิ
-0.18052576	สาม สิบ สอง วิ
-0.18052576	สี่ สิบ สอง วิ
-0.18052576	ห้า สิบ สอง วิ
-0.18052576	หก สิบ สอง วิ
-0.18052576	เจ็ด สิบ สอง วิ
-0.18052576	แปด สิบ สอง วิ
-0.18052576	เก้า สิบ สอง วิ
-0.18052576	ยี่ สิบ สอง วิ
-0.24171317	ก๊อกน้ำ สิบ สอง วิ
-0.2627404	เปิด ก๊อกน้ำ สอง วิ
-1.2039528	<s> เปิดน้ำ สาม วิ
-0.24839914	<s> สิบ สาม วิ
-0.24839914	เปิดน้ำ สิบ สาม วิ
-0.1843848	สาม สิบ สาม วิ
-0.1843848	สี่ สิบ สาม วิ
-0.1843848	ห้า สิบ สาม วิ
-0.1843848	หก สิบ สาม วิ
-0.1843848	เจ็ด สิบ สาม วิ
-0.1843848	แปด สิบ สาม วิ
-0.1843848	เก้า สิบ สาม วิ
-0.1843848	ยี่ สิบ สาม วิ
-0.24839914	ก๊อกน้ำ สิบ สาม วิ
-1.2039528	เปิด ก๊อกน้ำ สาม วิ
-1.2039528	<s> เปิดน้ำ สี่ วิ
-0.24839914	<s> สิบ สี่ วิ
-0.24839914	เปิดน้ำ สิบ สี่ วิ
-0.1843848	สาม สิบ สี่ วิ
-0.1843848	สี่ สิบ สี่ วิ
-0.1843848	ห้า สิบ สี่ วิ
-0.1843848	หก สิบ สี่ วิ
-0.1843848	เจ็ด สิบ สี่ วิ
-0.1843848	แปด สิบ สี่ วิ
-0.1843848	เก้า สิบ สี่ วิ
-0.1843848	ยี่ สิบ สี่ วิ
-0.24839914	ก๊อกน้ำ สิบ สี่ วิ
-1.2039528	เปิด ก๊อกน้ำ สี่ วิ
-1.2039528	<s> เปิดน้ำ ห้า วิ
-0.24839914	<s> สิบ ห้า วิ
-0.24839914	เปิดน้ำ สิบ ห้า วิ
-0.1843848	สาม สิบ ห้า วิ
-0.1843848	สี่ สิบ ห้า วิ
-0.1843848	ห้า สิบ ห้า วิ
-0.1843848	หก สิบ ห้า วิ
-0.1843848	เจ็ด สิบ ห้า วิ
-0.1843848	แปด สิบ ห้า วิ
-0.1843848	เก้า สิบ ห้า วิ
-0.1843848	ยี่ สิบ ห้า วิ
-0.24839914	ก๊อกน้ำ สิบ ห้า วิ
-1.2039528	เปิด ก๊อกน้ำ ห้า วิ
-1.2039528	<s> เปิดน้ำ หก วิ
-0.24839914	<s> สิบ หก วิ
-0.24839914	เปิดน้ำ สิบ หก วิ
-0.1843848	สาม สิบ หก วิ
-0.1843848	สี่ สิบ หก วิ
-0.1843848	ห้า สิบ หก วิ
-0.1843848	หก สิบ หก วิ
-0.1843848	เจ็ด สิบ หก วิ
-0.1843848	แปด สิบ หก วิ
-0.1843848	เก้า สิบ หก วิ
-0.1843848	ยี่ สิบ หก วิ
-0.24839914	ก๊อกน้ำ สิบ หก วิ
-1.2039528	เปิด ก๊อกน้ำ หก วิ
-1.2039528	<s> เปิดน้ำ เจ็ด วิ
-0.24839914	<s> สิบ เจ็ด วิ
-0.24839914	เปิดน้ำ สิบ เจ็ด วิ
-0.1843848	สาม สิบ เจ็ด วิ
-0.1843848	สี่ สิบ เจ็ด วิ
-0.1843848	ห้า สิบ เจ็ด วิ
-0.1843848	หก สิบ เจ็ด วิ
-0.1843848	เจ็ด สิบ เจ็ด วิ
-0.1843848	แปด สิบ เจ็ด วิ
-0.1843848	เก้า สิบ เจ็ด วิ
-0.1843848	ยี่ สิบ เจ็ด วิ
-0.24839914	ก๊อกน้ำ สิบ เจ็ด วิ
-1.2039528	เปิด ก๊อกน้ำ เจ็ด วิ
-1.2039528	<s> เปิดน้ำ แปด วิ
-0.24839914	<s> สิบ แปด วิ
-0.24839914	เปิดน้ำ สิบ แปด วิ
-0.1843848	สาม สิบ แปด วิ
-0.1843848	สี่ สิบ แปด วิ
-0.1843848	ห้า สิบ แปด วิ
-0.1843848	หก สิบ แปด วิ
-0.1843848	เจ็ด สิบ แปด วิ
-0.1843848	แปด สิบ แปด วิ
-0.1843848	เก้า สิบ แปด วิ
-0.1843848	ยี่ สิบ แปด วิ
-0.24839914	ก๊อกน้ำ สิบ แปด วิ
-1.2039528	เปิด ก๊อกน้ำ แปด วิ
-1.2039528	<s> เปิดน้ำ เก้า วิ
-0.24839914	<s> สิบ เก้า วิ
-0.24839914	เปิดน้ำ สิบ เก้า วิ
-0.1843848	สาม สิบ เก้า วิ
-0.1843848	สี่ สิบ เก้า วิ
-0.1843848	ห้า สิบ เก้า วิ
-0.1843848	หก สิบ เก้า วิ
-0.1843848	เจ็ด สิบ เก้า วิ
-0.1843848	แปด สิบ เก้า วิ
-0.1843848	เก้า สิบ เก้า วิ
-0.1843848	ยี่ สิบ เก้า วิ
-0.24839914	ก๊อกน้ำ สิบ เก้า วิ
-1.2039528	เปิด ก๊อกน้ำ เก้า วิ
-1.0603919	<s> เปิดน้ำ สิบ วิ
-1.0603919	<s> สาม สิบ วิ
-1.0603919	เปิดน้ำ สาม สิบ วิ
-1.0603919	ก๊อกน้ำ สาม สิบ วิ
-1.0603919	<s> สี่ สิบ วิ
-1.0603919	เปิดน้ำ สี่ สิบ วิ
-1.0603919	ก๊อกน้ำ สี่ สิบ วิ
-1.0603919	<s> ห้า สิบ วิ
-1.0603919	เปิดน้ำ ห้า สิบ วิ
-1.0603919	ก๊อกน้ำ ห้า สิบ วิ
-1.0603919	<s> หก สิบ วิ
-1.0603919	เปิดน้ำ หก สิบ วิ
-1.0603919	ก๊อกน้ำ หก สิบ วิ
-1.0603919	<s> เจ็ด สิบ วิ
-1.0603919	เปิดน้ำ เจ็ด สิบ วิ
-1.0603919	ก๊อกน้ำ เจ็ด สิบ วิ
-1.0603919	<s> แปด สิบ วิ
-1.0603919	เปิดน้ำ แปด สิบ วิ
-1.0603919	ก๊อกน้ำ แปด สิบ วิ
-1.0603919	<s> เก้า สิบ วิ
-1.0603919	เปิดน้ำ เก้า สิบ วิ
-1.0603919	ก๊อกน้ำ เก้า สิบ วิ
-1.0912932	<s> ยี่ สิบ วิ
-1.0912932	เปิดน้ำ ยี่ สิบ วิ
-1.0912932	ก๊อกน้ำ ยี่ สิบ วิ
-1.0603919	เปิด ก๊อกน้ำ สิบ วิ
-0.24532025	<s> เปิดน้ำ สิบเอ็ด วิ
-0.24532025	<s> สาม สิบเอ็ด วิ
-0.24532025	เปิดน้ำ สาม สิบเอ็ด วิ
-0.24532025	ก๊อกน้ำ สาม สิบเอ็ด วิ
-0.24532025	<s> สี่ สิบเอ็ด วิ
-0.24532025	เปิดน้ำ สี่ สิบเอ็ด วิ
-0.24532025	ก๊อกน้ำ สี่ สิบเอ็ด วิ
-0.24532025	<s> ห้า สิบเอ็ด วิ
-0.24532025	เปิดน้ำ ห้า สิบเอ็ด วิ
-0.24532025	ก๊อกน้ำ ห้า สิบเอ็ด วิ
-0.24532025	<s> หก สิบเอ็ด วิ
-0.24532025	เปิดน้ำ หก สิบเอ็ด วิ
-0.24532025	ก๊อกน้ำ หก สิบเอ็ด วิ
-0.24532025	<s> เจ็ด สิบเอ็ด วิ
-0.24532025	เปิดน้ำ เจ็ด สิบเอ็ด วิ
-0.24532025	ก๊อกน้ำ เจ็ด สิบเอ็ด วิ
-0.24532025	<s> แปด สิบเอ็ด วิ
-0.24532025	เปิดน้ำ แปด สิบเอ็ด วิ
-0.24532025	ก๊อกน้ำ แปด สิบเอ็ด วิ
-0.24532025	<s> เก้า สิบเอ็ด วิ
-0.24532025	เปิดน้ำ เก้า สิบเอ็ด วิ
-0.24532025	ก๊อกน้ำ เก้า สิบเอ็ด วิ
-0.24532025	เปิด ก๊อกน้ำ สิบเอ็ด วิ
-0.19821483	ยี่ สิบ เอ็ด วิ
-0.27272907	<s> เปิดก๊อก น้ำหนึ่ง วิ
-0.3134004	<s> หนึ่ง วิ ให้
-0.3134004	เปิดน้ำ หนึ่ง วิ ให้
-0.3102746	<s> สอง วิ ให้
-0.3102746	เปิดน้ำ สอง วิ ให้
-0.30204752	สิบ สอง วิ ให้
-0.3102746	ก๊อกน้ำ สอง วิ ให้
-0.3102746	<s> สาม วิ ให้
-0.3102746	เปิดน้ำ สาม วิ ให้
-0.30204752	สิบ สาม วิ ให้
-0.3102746	ก๊อกน้ำ สาม วิ ให้
-0.3102746	<s> สี่ วิ ให้
-0.3102746	เปิดน้ำ สี่ วิ ให้
-0.30204752	สิบ สี่ วิ ให้
-0.3102746	ก๊อกน้ำ สี่ วิ ให้
-0.3102746	<s> ห้า วิ ให้
-0.3102746	เปิดน้ำ ห้า วิ ให้
-0.30204752	สิบ ห้า วิ ให้
-0.3102746	ก๊อกน้ำ ห้า วิ ให้
-0.3102746	<s> หก วิ ให้
-0.3102746	เปิดน้ำ หก วิ ให้
-0.30204752	สิบ หก วิ ให้
-0.3102746	ก๊อกน้ำ หก วิ ให้
-0.3102746	<s> เจ็ด วิ ให้
-0.3102746	เปิดน้ำ เจ็ด วิ ให้
-0.30204752	สิบ เจ็ด วิ ให้
-0.3102746	ก๊อกน้ำ เจ็ด วิ ให้
-0.3102746	<s> แปด วิ ให้
-0.3102746	เปิดน้ำ แปด วิ ให้
-0.30204752	สิบ แปด วิ ให้
-0.3102746	ก๊อกน้ำ แปด วิ ให้
-0.3102746	<s> เก้า วิ ให้
-0.3102746	เปิดน้ำ เก้า วิ ให้
-0.30204752	สิบ เก้า วิ ให้
-0.3102746	ก๊อกน้ำ เก้า วิ ให้
-0.30436894	<s> สิบ วิ ให้
-0.30436894	เปิดน้ำ สิบ วิ ให้
-0.30436894	สาม สิบ วิ ให้
-0.30436894	สี่ สิบ วิ ให้
-0.30436894	ห้า สิบ วิ ให้
-0.30436894	หก สิบ วิ ให้
-0.30436894	เจ็ด สิบ วิ ให้
-0.30436894	แปด สิบ วิ ให้
-0.30436894	เก้า สิบ วิ ให้
-0.30436894	ยี่ สิบ วิ ให้
-0.30436894	ก๊อกน้ำ สิบ วิ ให้
-0.30470428	<s> สิบเอ็ด วิ ให้
-0.30470428	เปิดน้ำ สิบเอ็ด วิ ให้
-0.30470428	สาม สิบเอ็ด วิ ให้
-0.30470428	สี่ สิบเอ็ด วิ ให้
-0.30470428	ห้า สิบเอ็ด วิ ให้
-0.30470428	หก สิบเอ็ด วิ ให้
-0.30470428	เจ็ด สิบเอ็ด วิ ให้
-0.30470428	แปด สิบเอ็ด วิ ให้
-0.30470428	เก้า สิบเอ็ด วิ ให้
-0.30470428	ก๊อกน้ำ สิบเอ็ด วิ ให้
-0.3134004	สิบ เอ็ด วิ ให้
-0.3134004	เปิดก๊อก น้ำหนึ่ง วิ ให้
-0.012436331	หนึ่ง วิ ให้ หน่อย
-0.001227745	สอง วิ ให้ หน่อย
-0.001227745	สาม วิ ให้ หน่อย
-0.001227745	สี่ วิ ให้ หน่อย
-0.001227745	ห้า วิ ให้ หน่อย
-0.001227745	หก วิ ให้ หน่อย
-0.001227745	เจ็ด วิ ให้ หน่อย
-0.001227745	แปด วิ ให้ หน่อย
-0.001227745	เก้า วิ ให้ หน่อย
-0.001364364	สิบ วิ ให้ หน่อย
-0.0015352113	สิบเอ็ด วิ ให้ หน่อย
-0.012436331	เอ็ด วิ ให้ หน่อย
-0.012436331	น้ำหนึ่ง วิ ให้ หน่อย
-0.7746824	<s> เปิดน้ำ แรง หน่อย
-0.52650714	<s> แรง แรง หน่อย
-0.52650714	เปิดน้ำ แรง แรง หน่อย
-0.52650714	ก๊อกน้ำ แรง แรง หน่อย
-0.7746824	เปิด ก๊อกน้ำ แรง หน่อย
-0.7746824	<s> เปิดน้ำ เบา หน่อย
-0.52650714	<s> เบา เบา หน่อย
-0.52650714	เปิดน้ำ เบา เบา หน่อย
-0.52650714	ก๊อกน้ำ เบา เบา หน่อย
-0.7746824	เปิด ก๊อกน้ำ เบา หน่อย
-0.4353327	<s> เปิดน้ำ หนึ่ง วินาที
-0.42088267	<s> เปิดน้ำ สอง วินาที
-0.39093113	<s> สิบ สอง วินาที
-0.39093113	เปิดน้ำ สิบ สอง วินาที
-0.486036	สาม สิบ สอง วินาที
-0.486036	สี่ สิบ สอง วินาที
-0.486036	ห้า สิบ สอง วินาที
-0.486036	หก สิบ สอง วินาที
-0.486036	เจ็ด สิบ สอง วินาที
-0.486036	แปด สิบ สอง วินาที
-0.486036	เก้า สิบ สอง วินาที
-0.486036	ยี่ สิบ สอง วินาที
-0.39093113	ก๊อกน้ำ สิบ สอง วินาที
-0.42088267	เปิด ก๊อกน้ำ สอง วินาที
-1.3244733	<s> เปิดน้ำ สาม วินาที
-0.40038836	<s> สิบ สาม วินาที
-0.40038836	เปิดน้ำ สิบ สาม วินาที
-0.49386975	สาม สิบ สาม วินาที
-0.49386975	สี่ สิบ สาม วินาที
-0.49386975	ห้า สิบ สาม วินาที
-0.49386975	หก สิบ สาม วินาที
-0.49386975	เจ็ด สิบ สาม วินาที
-0.49386975	แปด สิบ สาม วินาที
-0.49386975	เก้า สิบ สาม วินาที
-0.49386975	ยี่ สิบ สาม วินาที
-0.40038836	ก๊อกน้ำ สิบ สาม วินาที
-1.3244733	เปิด ก๊อกน้ำ สาม วินาที
-1.3244733	<s> เปิดน้ำ สี่ วินาที
-0.40038836	<s> สิบ สี่ วินาที
-0.40038836	เปิดน้ำ สิบ สี่ วินาที
-0.49386975	สาม สิบ สี่ วินาที
-0.49386975	สี่ สิบ สี่ วินาที
-0.49386975	ห้า สิบ สี่ วินาที
-0.49386975	หก สิบ สี่ วินาที
-0.49386975	เจ็ด สิบ สี่ วินาที
-0.49386975	แปด สิบ สี่ วินาที
-0.49386975	เก้า สิบ สี่ วินาที
-0.49386975	ยี่ สิบ สี่ วินาที
-0.40038836	ก๊อกน้ำ สิบ สี่ วินาที
-1.3244733	เปิด ก๊อกน้ำ สี่ วินาที
-1.3244733	<s> เปิดน้ำ ห้า วินาที
-0.40038836	<s> สิบ ห้า วินาที
-0.40038836	เปิดน้ำ สิบ ห้า วินาที
-0.49386975	สาม สิบ ห้า วินาที
-0.49386975	สี่ สิบ ห้า วินาที
-0.49386975	ห้า สิบ ห้า วินาที
-0.49386975	หก สิบ ห้า วินาที
-0.49386975	เจ็ด สิบ ห้า วินาที
-0.49386975	แปด สิบ ห้า วินาที
-0.49386975	เก้า สิบ ห้า วินาที
-0.49386975	ยี่ สิบ ห้า วินาที
-0.40038836	ก๊อกน้ำ สิบ ห้า วินาที
-1.3244733	เปิด ก๊อกน้ำ ห้า วินาที
-1.3244733	<s> เปิดน้ำ หก วินาที
-0.40038836	<s> สิบ หก วินาที
-0.40038836	เปิดน้ำ สิบ หก วินาที
-0.49386975	สาม สิบ หก วินาที
-0.49386975	สี่ สิบ หก วินาที
-0.49386975	ห้า สิบ หก วินาที
-0.49386975	หก สิบ หก วินาที
-0.49386975	เจ็ด สิบ หก วินาที
-0.49386975	แปด สิบ หก วินาที
-0.49386975	เก้า สิบ หก วินาที
-0.49386975	ยี่ สิบ หก วินาที
-0.40038836	ก๊อกน้ำ สิบ หก วินาที
-1.3244733	เปิด ก๊อกน้ำ หก วินาที
-1.3244733	<s> เปิดน้ำ เจ็ด วินาที
-0.40038836	<s> สิบ เจ็ด วินาที
-0.40038836	เปิดน้ำ สิบ เจ็ด วินาที
-0.49386975	สาม สิบ เจ็ด วินาที
-0.49386975	สี่ สิบ เจ็ด วินาที
-0.49386975	ห้า สิบ เจ็ด วินาที
-0.49386975	หก สิบ เจ็ด วินาที
-0.49386975	เจ็ด สิบ เจ็ด วินาที
-0.49386975	แปด สิบ เจ็ด วินาที
-0.49386975	เก้า สิบ เจ็ด วินาที
-0.49386975	ยี่ สิบ เจ็ด วินาที
-0.40038836	ก๊อกน้ำ สิบ เจ็ด วินาที
-1.3244733	เปิด ก๊อกน้ำ เจ็ด วินาที
-1.3244733	<s> เปิดน้ำ แปด วินาที
-0.40038836	<s> สิบ แปด วินาที
-0.40038836	เปิดน้ำ สิบ แปด วินาที
-0.49386975	สาม สิบ แปด วินาที
-0.49386975	สี่ สิบ แปด วินาที
-0.49386975	ห้า สิบ แปด วินาที
-0.49386975	หก สิบ แปด วินาที
-0.49386975	เจ็ด สิบ แปด วินาที
-0.49386975	แปด สิบ แปด วินาที
-0.49386975	เก้า สิบ แปด วินาที
-0.49386975	ยี่ สิบ แปด วินาที
-0.40038836	ก๊อกน้ำ สิบ แปด วินาที
-1.3244733	เปิด ก๊อกน้ำ แปด วินาที
-1.3244733	<s> เปิดน้ำ เก้า วินาที
-0.40038836	<s> สิบ เก้า วินาที
-0.40038836	เปิดน้ำ สิบ เก้า วินาที
-0.49386975	สาม สิบ เก้า วินาที
-0.49386975	สี่ สิบ เก้า วินาที
-0.49386975	ห้า สิบ เก้า วินาที
-0.49386975	หก สิบ เก้า วินาที
-0.49386975	เจ็ด สิบ เก้า วินาที
-0.49386975	แปด สิบ เก้า วินาที
-0.49386975	เก้า สิบ เก้า วินาที
-0.49386975	ยี่ สิบ เก้า วินาที
-0.40038836	ก๊อกน้ำ สิบ เก้า วินาที
-1.3244733	เปิด ก๊อกน้ำ เก้า วินาที
-1.1643139	<s> เปิดน้ำ สิบ วินาที
-1.1643139	<s> สาม สิบ วินาที
-1.1643139	เปิดน้ำ สาม สิบ วินาที
-1.1643139	ก๊อกน้ำ สาม สิบ วินาที
-1.1643139	<s> สี่ สิบ วินาที
-1.1643139	เปิดน้ำ สี่ สิบ วินาที
-1.1643139	ก๊อกน้ำ สี่ สิบ วินาที
-1.1643139	<s> ห้า สิบ วินาที
-1.1643139	เปิดน้ำ ห้า สิบ วินาที
-1.1643139	ก๊อกน้ำ ห้า สิบ วินาที
-1.1643139	<s> หก สิบ วินาที
-1.1643139	เปิดน้ำ หก สิบ วินาที
-1.1643139	ก๊อกน้ำ หก สิบ วินาที
-1.1643139	<s> เจ็ด สิบ วินาที
-1.1643139	เปิดน้ำ เจ็ด สิบ วินาที
-1.1643139	ก๊อกน้ำ เจ็ด สิบ วินาที
-1.1643139	<s> แปด สิบ วินาที
-1.1643139	เปิดน้ำ แปด สิบ วินาที
-1.1643139	ก๊อกน้ำ แปด สิบ วินาที
-1.1643139	<s> เก้า สิบ วินาที
-1.1643139	เปิดน้ำ เก้า สิบ วินาที
-1.1643139	ก๊อกน้ำ เก้า สิบ วินาที
-1.1912847	<s> ยี่ สิบ วินาที
-1.1912847	เปิดน้ำ ยี่ สิบ วินาที
-1.1912847	ก๊อกน้ำ ยี่ สิบ วินาที
-1.1643139	เปิด ก๊อกน้ำ สิบ วินาที
-0.39602575	<s> เปิดน้ำ สิบเอ็ด วินาที
-0.39602575	<s> สาม สิบเอ็ด วินาที
-0.39602575	เปิดน้ำ สาม สิบเอ็ด วินาที
-0.39602575	ก๊อกน้ำ สาม สิบเอ็ด วินาที
-0.39602575	<s> สี่ สิบเอ็ด วินาที
-0.39602575	เปิดน้ำ สี่ สิบเอ็ด วินาที
-0.39602575	ก๊อกน้ำ สี่ สิบเอ็ด วินาที
-0.39602575	<s> ห้า สิบเอ็ด วินาที
-0.39602575	เปิดน้ำ ห้า สิบเอ็ด วินาที
-0.39602575	ก๊อกน้ำ ห้า สิบเอ็ด วินาที
-0.39602575	<s> หก สิบเอ็ด วินาที
-0.39602575	เปิดน้ำ หก สิบเอ็ด วินาที
-0.39602575	ก๊อกน้ำ หก สิบเอ็ด วินาที
-0.39602575	<s> เจ็ด สิบเอ็ด วินาที
-0.39602575	เปิดน้ำ เจ็ด สิบเอ็ด วินาที
-0.39602575	ก๊อกน้ำ เจ็ด สิบเอ็ด วินาที
-0.39602575	<s> แปด สิบเอ็ด วินาที
-0.39602575	เปิดน้ำ แปด สิบเอ็ด วินาที
-0.39602575	ก๊อกน้ำ แปด สิบเอ็ด วินาที
-0.39602575	<s> เก้า สิบเอ็ด วินาที
-0.39602575	เปิดน้ำ เก้า สิบเอ็ด วินาที
-0.39602575	ก๊อกน้ำ เก้า สิบเอ็ด วินาที
-0.39602575	เปิด ก๊อกน้ำ สิบเอ็ด วินาที
-0.5225561	ยี่ สิบ เอ็ด วินาที
-0.4353327	<s> เปิดก๊อก น้ำหนึ่ง วินาที
-0.98723894	<s> เปิดน้ำ สิบ สอง
-0.98723894	<s> สาม สิบ สอง
-0.98723894	เปิดน้ำ สาม สิบ สอง
-0.98723894	ก๊อกน้ำ สาม สิบ สอง
-0.98723894	<s> สี่ สิบ สอง
-0.98723894	เปิดน้ำ สี่ สิบ สอง
-0.98723894	ก๊อกน้ำ สี่ สิบ สอง
-0.98723894	<s> ห้า สิบ สอง
-0.98723894	เปิดน้ำ ห้า สิบ สอง
-0.98723894	ก๊อกน้ำ ห้า สิบ สอง
-0.98723894	<s> หก สิบ สอง
-0.98723894	เปิดน้ำ หก สิบ สอง
-0.98723894	ก๊อกน้ำ หก สิบ สอง
-0.98723894	<s> เจ็ด สิบ สอง
-0.98723894	เปิดน้ำ เจ็ด สิบ สอง
-0.98723894	ก๊อกน้ำ เจ็ด สิบ สอง
-0.98723894	<s> แปด สิบ สอง
-0.98723894	เปิดน้ำ แปด สิบ สอง
-0.98723894	ก๊อกน้ำ แปด สิบ สอง
-0.98723894	<s> เก้า สิบ สอง
-0.98723894	เปิดน้ำ เก้า สิบ สอง
-0.98723894	ก๊อกน้ำ เก้า สิบ สอง
-1.0215745	<s> ยี่ สิบ สอง
-1.0215745	เปิดน้ำ ยี่ สิบ สอง
-1.0215745	ก๊อกน้ำ ยี่ สิบ สอง
-0.98723894	เปิด ก๊อกน้ำ สิบ สอง
-2.0546327	<s> เปิด ก๊อกน้ำ สอง
-0.98723894	<s> เปิดน้ำ สิบ สาม
-0.98723894	<s> สาม สิบ สาม
-0.98723894	เปิดน้ำ สาม สิบ สาม
-0.98723894	ก๊อกน้ำ สาม สิบ สาม
-0.98723894	<s> สี่ สิบ สาม
-0.98723894	เปิดน้ำ สี่ สิบ สาม
-0.98723894	ก๊อกน้ำ สี่ สิบ สาม
-0.98723894	<s> ห้า สิบ สาม
-0.98723894	เปิดน้ำ ห้า สิบ สาม
-0.98723894	ก๊อกน้ำ ห้า สิบ สาม
-0.98723894	<s> หก สิบ สาม
-0.98723894	เปิดน้ำ หก สิบ สาม
-0.98723894	ก๊อกน้ำ หก สิบ สาม
-0.98723894	<s> เจ็ด สิบ สาม
-0.98723894	เปิดน้ำ เจ็ด สิบ สาม
-0.98723894	ก๊อกน้ำ เจ็ด สิบ สาม
-0.98723894	<s> แปด สิบ สาม
-0.98723894	เปิดน้ำ แปด สิบ สาม
-0.98723894	ก๊อกน้ำ แปด สิบ สาม
-0.98723894	<s> เก้า สิบ สาม
-0.98723894	เปิดน้ำ เก้า สิบ สาม
-0.98723894	ก๊อกน้ำ เก้า สิบ สาม
-1.0215745	<s> ยี่ สิบ สาม
-1.0215745	เปิดน้ำ ยี่ สิบ สาม
-1.0215745	ก๊อกน้ำ ยี่ สิบ สาม
-0.98723894	เปิด ก๊อกน้ำ สิบ สาม
-0.9814687	<s> เปิด ก๊อกน้ำ สาม
-0.98723894	<s> เปิดน้ำ สิบ สี่
-0.98723894	<s> สาม สิบ สี่
-0.98723894	เปิดน้ำ สาม สิบ สี่
-0.98723894	ก๊อกน้ำ สาม สิบ สี่
-0.98723894	<s> สี่ สิบ สี่
-0.98723894	เปิดน้ำ สี่ สิบ สี่
-0.98723894	ก๊อกน้ำ สี่ สิบ สี่
-0.98723894	<s> ห้า สิบ สี่
-0.98723894	เปิดน้ำ ห้า สิบ สี่
-0.98723894	ก๊อกน้ำ ห้า สิบ สี่
-0.98723894	<s> หก สิบ สี่
-0.98723894	เปิดน้ำ หก สิบ สี่
-0.98723894	ก๊อกน้ำ หก สิบ สี่
-0.98723894	<s> เจ็ด สิบ สี่
-0.98723894	เปิดน้ำ เจ็ด สิบ สี่
-0.98723894	ก๊อกน้ำ เจ็ด สิบ สี่
-0.98723894	<s> แปด สิบ สี่
-0.98723894	เปิดน้ำ แปด สิบ สี่
-0.98723894	ก๊อกน้ำ แปด สิบ สี่
-0.98723894	<s> เก้า สิบ สี่
-0.98723894	เปิดน้ำ เก้า สิบ สี่
-0.98723894	ก๊อกน้ำ เก้า สิบ สี่
-1.0215745	<s> ยี่ สิบ สี่
-1.0215745	เปิดน้ำ ยี่ สิบ สี่
-1.0215745	ก๊อกน้ำ ยี่ สิบ สี่
-0.98723894	เปิด ก๊อกน้ำ สิบ สี่
-0.9814687	<s> เปิด ก๊อกน้ำ สี่
-0.98723894	<s> เปิดน้ำ สิบ ห้า
-0.98723894	<s> สาม สิบ ห้า
-0.98723894	เปิดน้ำ สาม สิบ ห้า
-0.98723894	ก๊อกน้ำ สาม สิบ ห้า
-0.98723894	<s> สี่ สิบ ห้า
-0.98723894	เปิดน้ำ สี่ สิบ ห้า
-0.98723894	ก๊อกน้ำ สี่ สิบ ห้า
-0.98723894	<s> ห้า สิบ ห้า
-0.98723894	เปิดน้ำ ห้า สิบ ห้า
-0.98723894	ก๊อกน้ำ ห้า สิบ ห้า
-0.98723894	<s> หก สิบ ห้า
-0.98723894	เปิดน้ำ หก สิบ ห้า
-0.98723894	ก๊อกน้ำ หก สิบ ห้า
-0.98723894	<s> เจ็ด สิบ ห้า
-0.98723894	เปิดน้ำ เจ็ด สิบ ห้า
-0.98723894	ก๊อกน้ำ เจ็ด สิบ ห้า
-0.98723894	<s> แปด สิบ ห้า
-0.98723894	เปิดน้ำ แปด สิบ ห้า
-0.98723894	ก๊อกน้ำ แปด สิบ ห้า
-0.98723894	<s> เก้า สิบ ห้า
-0.98723894	เปิดน้ำ เก้า สิบ ห้า
-0.98723894	ก๊อกน้ำ เก้า สิบ ห้า
-1.0215745	<s> ยี่ สิบ ห้า
-1.0215745	เปิดน้ำ ยี่ สิบ ห้า
-1.0215745	ก๊อกน้ำ ยี่ สิบ ห้า
-0.98723894	เปิด ก๊อกน้ำ สิบ ห้า
-0.9814687	<s> เปิด ก๊อกน้ำ ห้า
-0.98723894	<s> เปิดน้ำ สิบ หก
-0.98723894	<s> สาม สิบ หก
-0.98723894	เปิดน้ำ สาม สิบ หก
-0.98723894	ก๊อกน้ำ สาม สิบ หก
-0.98723894	<s> สี่ สิบ หก
-0.98723894	เปิดน้ำ สี่ สิบ หก
-0.98723894	ก๊อกน้ำ สี่ สิบ หก
-0.98723894	<s> ห้า สิบ หก
-0.98723894	เปิดน้ำ ห้า สิบ หก
-0.98723894	ก๊อกน้ำ ห้า สิบ หก
-0.98723894	<s> หก สิบ หก
-0.98723894	เปิดน้ำ หก สิบ หก
-0.98723894	ก๊อกน้ำ หก สิบ หก
-0.98723894	<s> เจ็ด สิบ หก
-0.98723894	เปิดน้ำ เจ็ด สิบ หก
-0.98723894	ก๊อกน้ำ เจ็ด สิบ หก
-0.98723894	<s> แปด สิบ หก
-0.98723894	เปิดน้ำ แปด สิบ หก
-0.98723894	ก๊อกน้ำ แปด สิบ หก
-0.98723894	<s> เก้า สิบ หก
-0.98723894	เปิดน้ำ เก้า สิบ หก
-0.98723894	ก๊อกน้ำ เก้า สิบ หก
-1.0215745	<s> ยี่ สิบ หก
-1.0215745	เปิดน้ำ ยี่ สิบ หก
-1.0215745	ก๊อกน้ำ ยี่ สิบ หก
-0.98723894	เปิด ก๊อกน้ำ สิบ หก
-0.9814687	<s> เปิด ก๊อกน้ำ หก
-0.98723894	<s> เปิดน้ำ สิบ เจ็ด
-0.98723894	<s> สาม สิบ เจ็ด
-0.98723894	เปิดน้ำ สาม สิบ เจ็ด
-0.98723894	ก๊อกน้ำ สาม สิบ เจ็ด
-0.98723894	<s> สี่ สิบ เจ็ด
-0.98723894	เปิดน้ำ สี่ สิบ เจ็ด
-0.98723894	ก๊อกน้ำ สี่ สิบ เจ็ด
-0.98723894	<s> ห้า สิบ เจ็ด
-0.98723894	เปิดน้ำ ห้า สิบ เจ็ด
-0.98723894	ก๊อกน้ำ ห้า สิบ เจ็ด
-0.98723894	<s> หก สิบ เจ็ด
-0.98723894	เปิดน้ำ หก สิบ เจ็ด
-0.98723894	ก๊อกน้ำ หก สิบ เจ็ด
-0.98723894	<s> เจ็ด สิบ เจ็ด
-0.98723894	เปิดน้ำ เจ็ด สิบ เจ็ด
-0.98723894	ก๊อกน้ำ เจ็ด สิบ เจ็ด
-0.98723894	<s> แปด สิบ เจ็ด
-0.98723894	เปิดน้ำ แปด สิบ เจ็ด
-0.98723894	ก๊อกน้ำ แปด สิบ เจ็ด
-0.98723894	<s> เก้า สิบ เจ็ด
-0.98723894	เปิดน้ำ เก้า สิบ เจ็ด
-0.98723894	ก๊อกน้ำ เก้า สิบ เจ็ด
-1.0215745	<s> ยี่ สิบ เจ็ด
-1.0215745	เปิดน้ำ ยี่ สิบ เจ็ด
-1.0215745	ก๊อกน้ำ ยี่ สิบ เจ็ด
-0.98723894	เปิด ก๊อกน้ำ สิบ เจ็ด
-0.9814687	<s> เปิด ก๊อกน้ำ เจ็ด
-0.98723894	<s> เปิดน้ำ สิบ แปด
-0.98723894	<s> สาม สิบ แปด
-0.98723894	เปิดน้ำ สาม สิบ แปด
-0.98723894	ก๊อกน้ำ สาม สิบ แปด
-0.98723894	<s> สี่ สิบ แปด
-0.98723894	เปิดน้ำ สี่ สิบ แปด
-0.98723894	ก๊อกน้ำ สี่ สิบ แปด
-0.98723894	<s> ห้า สิบ แปด
-0.98723894	เปิดน้ำ ห้า สิบ แปด
-0.98723894	ก๊อกน้ำ ห้า สิบ แปด
-0.98723894	<s> หก สิบ แปด
-0.98723894	เปิดน้ำ หก สิบ แปด
-0.98723894	ก๊อกน้ำ หก สิบ แปด
-0.98723894	<s> เจ็ด สิบ แปด
-0.98723894	เปิดน้ำ เจ็ด สิบ แปด
-0.98723894	ก๊อกน้ำ เจ็ด สิบ แปด
-0.98723894	<s> แปด สิบ แปด
-0.98723894	เปิดน้ำ แปด สิบ แปด
-0.98723894	ก๊อกน้ำ แปด สิบ แปด
-0.98723894	<s> เก้า สิบ แปด
-0.98723894	เปิดน้ำ เก้า สิบ แปด
-0.98723894	ก๊อกน้ำ เก้า สิบ แปด
-1.0215745	<s> ยี่ สิบ แปด
-1.0215745	เปิดน้ำ ยี่ สิบ แปด
-1.0215745	ก๊อกน้ำ ยี่ สิบ แปด
-0.98723894	เปิด ก๊อกน้ำ สิบ แปด
-0.9814687	<s> เปิด ก๊อกน้ำ แปด
-0.98723894	<s> เปิดน้ำ สิบ เก้า
-0.98723894	<s> สาม สิบ เก้า
-0.98723894	เปิดน้ำ สาม สิบ เก้า
-0.98723894	ก๊อกน้ำ สาม สิบ เก้า
-0.98723894	<s> สี่ สิบ เก้า
-0.98723894	เปิดน้ำ สี่ สิบ เก้า
-0.98723894	ก๊อกน้ำ สี่ สิบ เก้า
-0.98723894	<s> ห้า สิบ เก้า
-0.98723894	เปิดน้ำ ห้า สิบ เก้า
-0.98723894	ก๊อกน้ำ ห้า สิบ เก้า
-0.98723894	<s> หก สิบ เก้า
-0.98723894	เปิดน้ำ หก สิบ เก้า
-0.98723894	ก๊อกน้ำ หก สิบ เก้า
-0.98723894	<s> เจ็ด สิบ เก้า
-0.98723894	เปิดน้ำ เจ็ด สิบ เก้า
-0.98723894	ก๊อกน้ำ เจ็ด สิบ เก้า
-0.98723894	<s> แปด สิบ เก้า
-0.98723894	เปิดน้ำ แปด สิบ เก้า
-0.98723894	ก๊อกน้ำ แปด สิบ เก้า
-0.98723894	<s> เก้า สิบ เก้า
-0.98723894	เปิดน้ำ เก้า สิบ เก้า
-0.98723894	ก๊อกน้ำ เก้า สิบ เก้า
-1.0215745	<s> ยี่ สิบ เก้า
-1.0215745	เปิดน้ำ ยี่ สิบ เก้า
-1.0215745	ก๊อกน้ำ ยี่ สิบ เก้า
-0.98723894	เปิด ก๊อกน้ำ สิบ เก้า
-0.9814687	<s> เปิด ก๊อกน้ำ เก้า
-0.0971256	<s> เปิดน้ำ สาม สิบ
-0.0971256	เปิด ก๊อกน้ำ สาม สิบ
-0.0971256	<s> เปิดน้ำ สี่ สิบ
-0.0971256	เปิด ก๊อกน้ำ สี่ สิบ
-0.0971256	<s> เปิดน้ำ ห้า สิบ
-0.0971256	เปิด ก๊อกน้ำ ห้า สิบ
-0.0971256	<s> เปิดน้ำ หก สิบ
-0.0971256	เปิด ก๊อกน้ำ หก สิบ
-0.0971256	<s> เปิดน้ำ เจ็ด สิบ
-0.0971256	เปิด ก๊อกน้ำ เจ็ด สิบ
-0.0971256	<s> เปิดน้ำ แปด สิบ
-0.0971256	เปิด ก๊อกน้ำ แปด สิบ
-0.0971256	<s> เปิดน้ำ เก้า สิบ
-0.0971256	เปิด ก๊อกน้ำ เก้า สิบ
-0.004988107	<s> เปิดน้ำ ยี่ สิบ
-0.004988107	เปิด ก๊อกน้ำ ยี่ สิบ
-1.0648222	<s> เปิด ก๊อกน้ำ สิบ
-1.1421084	<s> เปิดน้ำ สาม สิบเอ็ด
-1.1421084	เปิด ก๊อกน้ำ สาม สิบเอ็ด
-1.1421084	<s> เปิดน้ำ สี่ สิบเอ็ด
-1.1421084	เปิด ก๊อกน้ำ สี่ สิบเอ็ด
-1.1421084	<s> เปิดน้ำ ห้า สิบเอ็ด
-1.1421084	เปิด ก๊อกน้ำ ห้า สิบเอ็ด
-1.1421084	<s> เปิดน้ำ หก สิบเอ็ด
-1.1421084	เปิด ก๊อกน้ำ หก สิบเอ็ด
-1.1421084	<s> เปิดน้ำ เจ็ด สิบเอ็ด
-1.1421084	เปิด ก๊อกน้ำ เจ็ด สิบเอ็ด
-1.1421084	<s> เปิดน้ำ แปด สิบเอ็ด
-1.1421084	เปิด ก๊อกน้ำ แปด สิบเอ็ด
-1.1421084	<s> เปิดน้ำ เก้า สิบเอ็ด
-1.1421084	เปิด ก๊อกน้ำ เก้า สิบเอ็ด
-2.0188484	<s> เปิด ก๊อกน้ำ สิบเอ็ด
-1.0237465	<s> เปิด ก๊อกน้ำ ยี่
-1.1289191	<s> ยี่ สิบ เอ็ด
-1.1289191	เปิดน้ำ ยี่ สิบ เอ็ด
-1.1289191	ก๊อกน้ำ ยี่ สิบ เอ็ด
-0.38921344	<s> เปิดน้ำ แรง แรง
-0.38921344	เปิด ก๊อกน้ำ แรง แรง
-1.507087	<s> เปิด ก๊อกน้ำ แรง
-0.35016292	<s> แรง หน่อย ครับ
-0.35016292	เปิดน้ำ แรง หน่อย ครับ
-0.35016292	แรง แรง หน่อย ครับ
-0.35016292	ก๊อกน้ำ แรง หน่อย ครับ
-0.35016292	<s> เบา หน่อย ครับ
-0.35016292	เปิดน้ำ เบา หน่อย ครับ
-0.35016292	เบา เบา หน่อย ครับ
-0.35016292	ก๊อกน้ำ เบา หน่อย ครับ
-0.92575026	<s> เปิดน้ำ แรง ครับ
-0.70266336	<s> แรง แรง ครับ
-0.70266336	เปิดน้ำ แรง แรง ครับ
-0.70266336	ก๊อกน้ำ แรง แรง ครับ
-0.92575026	เปิด ก๊อกน้ำ แรง ครับ
-0.92575026	<s> เปิดน้ำ เบา ครับ
-0.70266336	<s> เบา เบา ครับ
-0.70266336	เปิดน้ำ เบา เบา ครับ
-0.70266336	ก๊อกน้ำ เบา เบา ครับ
-0.92575026	เปิด ก๊อกน้ำ เบา ครับ
-0.52965605	<s> ปิด น้ำ ครับ
-0.35016292	<s> แรง หน่อย ค่ะ
-0.35016292	เปิดน้ำ แรง หน่อย ค่ะ
-0.35016292	แรง แรง หน่อย ค่ะ
-0.35016292	ก๊อกน้ำ แรง หน่อย ค่ะ
-0.35016292	<s> เบา หน่อย ค่ะ
-0.35016292	เปิดน้ำ เบา หน่อย ค่ะ
-0.35016292	เบา เบา หน่อย ค่ะ
-0.35016292	ก๊อกน้ำ เบา หน่อย ค่ะ
-0.92575026	<s> เปิดน้ำ แรง ค่ะ
-0.70266336	<s> แรง แรง ค่ะ
-0.70266336	เปิดน้ำ แรง แรง ค่ะ
-0.70266336	ก๊อกน้ำ แรง แรง ค่ะ
-0.92575026	เปิด ก๊อกน้ำ แรง ค่ะ
-0.92575026	<s> เปิดน้ำ เบา ค่ะ
-0.70266336	<s> เบา เบา ค่ะ
-0.70266336	เปิดน้ำ เบา เบา ค่ะ
-0.70266336	ก๊อกน้ำ เบา เบา ค่ะ
-0.92575026	เปิด ก๊อกน้ำ เบา ค่ะ
-0.52965605	<s> ปิด น้ำ ค่ะ
-0.38921344	<s> เปิดน้ำ เบา เบา
-0.38921344	เปิด ก๊อกน้ำ เบา เบา
-1.507087	<s> เปิด ก๊อกน้ำ เบา
-0.37796187	<s> เปิดน้ำ ประหยัด ประหยัด

\end\
